<?xml version="1.0"?>
<opencv_storage>
<cascade>
  <stageType>BOOST</stageType>
  <featureType>HAAR</featureType>
  <height>24</height>
  <width>24</width>
  <stageParams>
    <boostType>GAB</boostType>
    <minHitRate>9.9900001287460327e-01</minHitRate>
    <maxFalseAlarm>5.0000000000000000e-01</maxFalseAlarm>
    <weightTrimRate>9.4999998807907104e-01</weightTrimRate>
    <maxDepth>1</maxDepth>
    <maxWeakCount>100</maxWeakCount></stageParams>
  <featureParams>
    <maxCatCount>0</maxCatCount>
    <featSize>1</featSize>
    <mode>ALL</mode></featureParams>
  <stageNum>5</stageNum>
  <stages>
    <!-- stage 0 -->
    <_>
      <maxWeakCount>3</maxWeakCount>
      <stageThreshold>-1.0647218227386475e+00</stageThreshold>
      <weakClassifiers>
        <_>
          <internalNodes>
            0 -1 7 -1.1521017551422119e-01</internalNodes>
          <leafValues>
            9.6267187595367432e-01 -9.9978291988372803e-01</leafValues></_>
        <_>
          <internalNodes>
            0 -1 1 1.1771912127733231e-01</internalNodes>
          <leafValues>
            -9.9553334712982178e-01 9.5978087186813354e-01</leafValues></_>
        <_>
          <internalNodes>
            0 -1 6 -1.2864881753921509e-01</internalNodes>
          <leafValues>
            9.3059444427490234e-01 -9.9770694971084595e-01</leafValues></_></weakClassifiers></_>
    <!-- stage 1 -->
    <_>
      <maxWeakCount>2</maxWeakCount>
      <stageThreshold>-2.5087496638298035e-01</stageThreshold>
      <weakClassifiers>
        <_>
          <internalNodes>
            0 -1 9 2.5379151105880737e-02</internalNodes>
          <leafValues>
            -9.9495172500610352e-01 7.4464285373687744e-01</leafValues></_>
        <_>
          <internalNodes>
            0 -1 0 -3.3180035650730133e-02</internalNodes>
          <leafValues>
            7.7000325918197632e-01 -9.9551784992218018e-01</leafValues></_></weakClassifiers></_>
    <!-- stage 2 -->
    <_>
      <maxWeakCount>3</maxWeakCount>
      <stageThreshold>-1.0521720647811890e+00</stageThreshold>
      <weakClassifiers>
        <_>
          <internalNodes>
            0 -1 4 -1.8968735635280609e-01</internalNodes>
          <leafValues>
            9.3118757009506226e-01 -9.7213590145111084e-01</leafValues></_>
        <_>
          <internalNodes>
            0 -1 10 4.2902521789073944e-02</internalNodes>
          <leafValues>
            -9.6373087167739868e-01 9.7354978322982788e-01</leafValues></_>
        <_>
          <internalNodes>
            0 -1 8 -8.6258798837661743e-03</internalNodes>
          <leafValues>
            8.8369476795196533e-01 -9.8413068056106567e-01</leafValues></_></weakClassifiers></_>
    <!-- stage 3 -->
    <_>
      <maxWeakCount>3</maxWeakCount>
      <stageThreshold>-1.1999682188034058e+00</stageThreshold>
      <weakClassifiers>
        <_>
          <internalNodes>
            0 -1 12 -3.6350660026073456e-02</internalNodes>
          <leafValues>
            9.5443642139434814e-01 -9.6062994003295898e-01</leafValues></_>
        <_>
          <internalNodes>
            0 -1 5 -4.6707503497600555e-02</internalNodes>
          <leafValues>
            9.0143781900405884e-01 -9.6311902999877930e-01</leafValues></_>
        <_>
          <internalNodes>
            0 -1 11 7.3724702000617981e-02</internalNodes>
          <leafValues>
            -9.9558675289154053e-01 7.2378069162368774e-01</leafValues></_></weakClassifiers></_>
    <!-- stage 4 -->
    <_>
      <maxWeakCount>3</maxWeakCount>
      <stageThreshold>-1.3164017200469971e+00</stageThreshold>
      <weakClassifiers>
        <_>
          <internalNodes>
            0 -1 2 1.4349913597106934e-01</internalNodes>
          <leafValues>
            -9.8990452289581299e-01 7.0509386062622070e-01</leafValues></_>
        <_>
          <internalNodes>
            0 -1 3 2.0760681480169296e-02</internalNodes>
          <leafValues>
            -9.8313617706298828e-01 6.5003156661987305e-01</leafValues></_>
        <_>
          <internalNodes>
            0 -1 13 -1.0064605623483658e-02</internalNodes>
          <leafValues>
            7.3604130744934082e-01 -9.7652876377105713e-01</leafValues></_></weakClassifiers></_></stages>
  <features>
    <_>
      <rects>
        <_>
          5 10 9 1 -1.</_>
        <_>
          8 13 3 1 3.</_></rects>
      <tilted>1</tilted></_>
    <_>
      <rects>
        <_>
          7 5 11 6 -1.</_>
        <_>
          5 7 11 2 3.</_></rects>
      <tilted>1</tilted></_>
    <_>
      <rects>
        <_>
          7 5 12 6 -1.</_>
        <_>
          5 7 12 2 3.</_></rects>
      <tilted>1</tilted></_>
    <_>
      <rects>
        <_>
          8 2 4 6 -1.</_>
        <_>
          8 4 4 2 3.</_></rects>
      <tilted>0</tilted></_>
    <_>
      <rects>
        <_>
          9 2 13 6 -1.</_>
        <_>
          7 4 13 2 3.</_></rects>
      <tilted>1</tilted></_>
    <_>
      <rects>
        <_>
          9 9 6 6 -1.</_>
        <_>
          9 9 3 3 2.</_>
        <_>
          12 12 3 3 2.</_></rects>
      <tilted>0</tilted></_>
    <_>
      <rects>
        <_>
          10 11 9 6 -1.</_>
        <_>
          13 13 3 2 9.</_></rects>
      <tilted>0</tilted></_>
    <_>
      <rects>
        <_>
          11 4 11 6 -1.</_>
        <_>
          9 6 11 2 3.</_></rects>
      <tilted>1</tilted></_>
    <_>
      <rects>
        <_>
          13 4 2 5 -1.</_>
        <_>
          14 4 1 5 2.</_></rects>
      <tilted>0</tilted></_>
    <_>
      <rects>
        <_>
          17 6 2 8 -1.</_>
        <_>
          17 10 2 4 2.</_></rects>
      <tilted>0</tilted></_>
    <_>
      <rects>
        <_>
          18 4 4 17 -1.</_>
        <_>
          19 4 2 17 2.</_></rects>
      <tilted>0</tilted></_>
    <_>
      <rects>
        <_>
          18 9 6 7 -1.</_>
        <_>
          20 11 2 7 3.</_></rects>
      <tilted>1</tilted></_>
    <_>
      <rects>
        <_>
          20 3 4 8 -1.</_>
        <_>
          21 3 2 8 2.</_></rects>
      <tilted>0</tilted></_>
    <_>
      <rects>
        <_>
          20 18 4 2 -1.</_>
        <_>
          21 19 2 2 2.</_></rects>
      <tilted>1</tilted></_></features></cascade>
</opencv_storage>
